-2.8793628931191257,-11.386708720016095,-11.72785091652462,19.402710588932162,-3.1799207347651763,-9.4074224682751186,12.294958412211701,12.510287634599107
1.957198472313288,5.5134154239576327,5.4281313936743798,-17.03131716498217,2.6385152333833615,5.3835981911336264,-7.2170129283820472,-5.930066813434844
-0.72696213086245887,8.5388191092164138,9.1216906498569887,-26.432535648496845,-0.68067352738458287,8.750299406397783,-11.440669218523547,-8.9168301709364179
3.5379486367901385,-1.2406580111967551,-1.0246743091569883,-1.7084718557493246,2.7668367743326217,-0.37348181221149801,0.58963225998715074,1.4812182547295656
-6.6672246146849465,-10.10860530288249,-10.234164180785076,10.195996653255699,-6.8506635530447397,-8.1734177832182251,9.781251324709471,10.860487038765555
0.078266572768239687,-0.29621934596379373,-0.35816442929844794,0.24697205167380051,0.20759735456112038,-0.13409093250214341,0.062939880157860173,0.29892186793187009
0.37816034051873876,-0.25259504401937383,-0.4575321677208285,-0.82128465055869082,0.42424745539069708,-1.6859922601048474,2.6185672163204625,-0.13099936495541603
0.86563863364742322,0.26740348615899917,0.2904208491523298,0.076446117784740253,0.92667708106665947,-0.42124796209899434,0.42483950924526925,-0.17660942461522799
