3.6228585034902947,-14.133977125355361,0.99683915354539321,-5.1712006197824971,-11.536925857401592,0.68742444264576941,-0.22925910781443884,0.23918948414636662
-0.92133451532311328,-0.70936016693824533,0.22374986401283611,-2.1765184415374583,0.35983066531879243,0.76812852247462715,-0.82574412178163614,-0.31425087217134184
-13.047585612216064,22.131289433098587,-1.0625743000434462,-3.3356740077022944,9.5722421209120778,0.95211832299208154,-4.3513978997675311,-4.6958579098479332
9.2935783857831247,-22.398686013816693,1.3112612372259371,-2.7664303968634361,-9.6673024826972842,0.63115315837448671,2.8564110984561704,2.9180311766489115
-5.2758906558733809,5.784113802018684,-2.7918105264675224,-5.6359708119476641,8.9913088443531173,0.66306774717774752,-2.2828531862794645,-2.4053867323531808
-2.4435452135150322,0.621370992321573,1.8405962882973561,-1.3148319248054074,0.027060028481543708,1.1831486812370891,-0.64910545358768634,-1.6167915804067758
-7.8179330973297008,0.52820343193602104,-0.38072932376669266,-5.0607876581392919,1.0182259300677954,1.2756938832380122,-3.3285627231753336,-3.3185161268710464
-6.952507594644894,-1.976217315337172,2.8636548938368889,-4.8367188268356518,-5.490168686439489,2.0219834831514256,-4.0241081684141946,-3.8120016604909006
