-18.219761758005188,0.42510387469711369,-9.9195709639182255,5.2033014045074824,-8.4308710207872348,-9.1677576185068599,0.11545091012623018,6.963615053643303,-9.50755532621924,-8.8094289717908634
6.850352717741524,3.6224965815588752,-11.585407977635199,-0.51124991484901428,-10.731336695655312,-11.911398234764315,-2.8043530137907564,-1.0666045480155066,1.9379984343807839,-3.9018325252920834
0.46242050236315901,-0.62966131701241002,-4.0077436334375358,-2.127633640673432,-2.2223398180892238,-2.1471401085470778,0.74240033518066595,-2.1599351713687143,1.5763509883919105,-1.2694789799361215
9.6536095322553308,1.3974668038579556,1.8320278583448935,-4.9327792575244942,5.1028022757411309,5.1021453093236406,-1.4012361522314198,-3.8089762547484107,2.9467511058736875,9.430001951637351
-3.6770496912085182,-6.296648532796465,5.2712122429417425,-1.303799809238074,-5.3581363751656967,-4.9888843719450762,5.1283295351766682,-3.6533266964935303,5.2240132512276807,-8.1001365828392906
2.9911837871412659,1.1906310316381368,-3.3106559800133764,-0.31515088800037738,-0.21918076770949962,-0.63823586402990129,-1.208482796227256,0.46033593812260259,-0.616379953319379,2.8854014810129036
5.6936424852173397,-0.32031646058456692,-0.50738040749144797,-0.33360292734665364,0.029785718877987751,-0.88496812814745984,0.068330378624063395,-0.15974412719596842,0.30767002911462499,-1.0356849562891932
-20.753907077459406,-94.569030058384243,61.990244012988633,69.704075012112511,32.007005348876589,39.185793747453225,85.233007878893602,51.652537280468259,-42.671843377468612,8.2189887498093714
