12.461278960736774,12.392863056196562,4.5628108626725439,5.8663496148590806,6.1001325353838531,2.7159397673466166,-4.677146235525723,-4.9828935986282668,-13.897388507397746
1.5041608616043922,1.7036739838692097,-0.48713600151657749,9.0208307922470503,9.6568372246923548,1.629946147598025,0.43604056538908265,-4.0949773146200341,-3.6711936965405845
-2.2765240739336217,-2.2870771841503288,-3.1055419295837177,6.8467532157687936,7.1983416494839529,1.3049316700172962,2.5448405236103979,-3.2363564907321138,1.1891389371610228
-5.2765780301593228,-5.0850364373119312,-4.6284588415296195,-0.54137124331514919,-0.24693486359449915,0.29263777281407749,3.4757078491543369,1.9019839527088744,4.9821991907071785
-0.78148105750074137,0.027872855724153624,-5.9259885909374157,8.2955566084631087,6.9204028852688548,1.5045685189127003,5.5656972014759925,-5.5141078364527445,-0.28021416303029362
-2.1351906795740336,-2.1062213910082033,-1.6643877762021535,2.9425664062901697,3.5041001821234765,1.1854734224144099,1.5261927547640903,-0.43076707394662672,2.5144879290574633
-1.9380878714495688,-2.1417381313757988,-1.4525539855359593,3.117043890294334,2.6651353319907933,0.87957014614058859,1.39147104368888,-1.6423347708807761,2.8273675795820044
35.248488682331477,32.440178200191994,71.635045802154636,-23.574429275226731,-25.381598465200245,-0.47708591421475055,-55.907509654263649,9.8031132095751854,-24.175183570386558
